digraph Tree {
node [shape=box] ;
0 [label="X[36] <= 0.5\ngini = 0.9\nsamples = 1257\nvalue = [125, 129, 124, 130, 124, 126, 127, 125, 122, 125]"] ;
1 [label="X[28] <= 5.0\ngini = 0.515\nsamples = 184\nvalue = [123, 0, 2, 1, 3, 20, 4, 0, 2, 29]"] ;
0 -> 1 [labeldistance=2.5, labelangle=45, headlabel="True"] ;
2 [label="X[21] <= 0.5\ngini = 0.156\nsamples = 134\nvalue = [123, 0, 1, 0, 3, 3, 3, 0, 0, 1]"] ;
1 -> 2 ;
3 [label="gini = 0.76\nsamples = 10\nvalue = [1, 0, 1, 0, 2, 3, 3, 0, 0, 0]"] ;
2 -> 3 ;
4 [label="X[27] <= 6.5\ngini = 0.032\nsamples = 124\nvalue = [122, 0, 0, 0, 1, 0, 0, 0, 0, 1]"] ;
2 -> 4 ;
5 [label="gini = 0.0\nsamples = 114\nvalue = [114, 0, 0, 0, 0, 0, 0, 0, 0, 0]"] ;
4 -> 5 ;
6 [label="gini = 0.34\nsamples = 10\nvalue = [8, 0, 0, 0, 1, 0, 0, 0, 0, 1]"] ;
4 -> 6 ;
7 [label="X[21] <= 9.0\ngini = 0.568\nsamples = 50\nvalue = [0, 0, 1, 1, 0, 17, 1, 0, 2, 28]"] ;
1 -> 7 ;
8 [label="X[19] <= 4.5\ngini = 0.345\nsamples = 20\nvalue = [0, 0, 1, 0, 0, 16, 1, 0, 0, 2]"] ;
7 -> 8 ;
9 [label="gini = 0.0\nsamples = 10\nvalue = [0, 0, 0, 0, 0, 10, 0, 0, 0, 0]"] ;
8 -> 9 ;
10 [label="gini = 0.58\nsamples = 10\nvalue = [0, 0, 1, 0, 0, 6, 1, 0, 0, 2]"] ;
8 -> 10 ;
11 [label="X[58] <= 6.5\ngini = 0.242\nsamples = 30\nvalue = [0, 0, 0, 1, 0, 1, 0, 0, 2, 26]"] ;
7 -> 11 ;
12 [label="gini = 0.0\nsamples = 19\nvalue = [0, 0, 0, 0, 0, 0, 0, 0, 0, 19]"] ;
11 -> 12 ;
13 [label="gini = 0.545\nsamples = 11\nvalue = [0, 0, 0, 1, 0, 1, 0, 0, 2, 7]"] ;
11 -> 13 ;
14 [label="X[43] <= 1.5\ngini = 0.888\nsamples = 1073\nvalue = [2, 129, 122, 129, 121, 106, 123, 125, 120, 96]"] ;
0 -> 14 [labeldistance=2.5, labelangle=-45, headlabel="False"] ;
15 [label="X[26] <= 4.5\ngini = 0.737\nsamples = 305\nvalue = [0, 18, 0, 119, 10, 56, 3, 5, 13, 81]"] ;
14 -> 15 ;
16 [label="X[19] <= 10.5\ngini = 0.27\nsamples = 127\nvalue = [0, 5, 0, 108, 0, 0, 0, 1, 6, 7]"] ;
15 -> 16 ;
17 [label="X[45] <= 8.5\ngini = 0.088\nsamples = 110\nvalue = [0, 0, 0, 105, 0, 0, 0, 1, 2, 2]"] ;
16 -> 17 ;
18 [label="gini = 0.451\nsamples = 18\nvalue = [0, 0, 0, 13, 0, 0, 0, 1, 2, 2]"] ;
17 -> 18 ;
19 [label="gini = 0.0\nsamples = 92\nvalue = [0, 0, 0, 92, 0, 0, 0, 0, 0, 0]"] ;
17 -> 19 ;
20 [label="gini = 0.74\nsamples = 17\nvalue = [0, 5, 0, 3, 0, 0, 0, 0, 4, 5]"] ;
16 -> 20 ;
21 [label="X[21] <= 3.5\ngini = 0.714\nsamples = 178\nvalue = [0, 13, 0, 11, 10, 56, 3, 4, 7, 74]"] ;
15 -> 21 ;
22 [label="X[5] <= 1.5\ngini = 0.422\nsamples = 69\nvalue = [0, 3, 0, 4, 3, 52, 3, 2, 1, 1]"] ;
21 -> 22 ;
23 [label="gini = 0.72\nsamples = 10\nvalue = [0, 3, 0, 4, 1, 0, 1, 0, 0, 1]"] ;
22 -> 23 ;
24 [label="X[10] <= 13.5\ngini = 0.219\nsamples = 59\nvalue = [0, 0, 0, 0, 2, 52, 2, 2, 1, 0]"] ;
22 -> 24 ;
25 [label="gini = 0.78\nsamples = 10\nvalue = [0, 0, 0, 0, 2, 3, 2, 2, 1, 0]"] ;
24 -> 25 ;
26 [label="gini = 0.0\nsamples = 49\nvalue = [0, 0, 0, 0, 0, 49, 0, 0, 0, 0]"] ;
24 -> 26 ;
27 [label="X[33] <= 2.5\ngini = 0.53\nsamples = 109\nvalue = [0, 10, 0, 7, 7, 4, 0, 2, 6, 73]"] ;
21 -> 27 ;
28 [label="X[29] <= 7.5\ngini = 0.352\nsamples = 89\nvalue = [0, 3, 0, 7, 0, 3, 0, 0, 5, 71]"] ;
27 -> 28 ;
29 [label="gini = 0.667\nsamples = 12\nvalue = [0, 0, 0, 6, 0, 2, 0, 0, 2, 2]"] ;
28 -> 29 ;
30 [label="X[20] <= 14.5\ngini = 0.194\nsamples = 77\nvalue = [0, 3, 0, 1, 0, 1, 0, 0, 3, 69]"] ;
28 -> 30 ;
31 [label="X[29] <= 14.5\ngini = 0.088\nsamples = 66\nvalue = [0, 0, 0, 1, 0, 0, 0, 0, 2, 63]"] ;
30 -> 31 ;
32 [label="gini = 0.357\nsamples = 14\nvalue = [0, 0, 0, 1, 0, 0, 0, 0, 2, 11]"] ;
31 -> 32 ;
33 [label="gini = 0.0\nsamples = 52\nvalue = [0, 0, 0, 0, 0, 0, 0, 0, 0, 52]"] ;
31 -> 33 ;
34 [label="gini = 0.612\nsamples = 11\nvalue = [0, 3, 0, 0, 0, 1, 0, 0, 1, 6]"] ;
30 -> 34 ;
35 [label="X[61] <= 4.5\ngini = 0.73\nsamples = 20\nvalue = [0, 7, 0, 0, 7, 1, 0, 2, 1, 2]"] ;
27 -> 35 ;
36 [label="gini = 0.46\nsamples = 10\nvalue = [0, 0, 0, 0, 7, 1, 0, 2, 0, 0]"] ;
35 -> 36 ;
37 [label="gini = 0.46\nsamples = 10\nvalue = [0, 7, 0, 0, 0, 0, 0, 0, 1, 2]"] ;
35 -> 37 ;
38 [label="X[46] <= 5.5\ngini = 0.86\nsamples = 768\nvalue = [2, 111, 122, 10, 111, 50, 120, 120, 107, 15]"] ;
14 -> 38 ;
39 [label="X[38] <= 0.5\ngini = 0.839\nsamples = 623\nvalue = [2, 110, 116, 3, 103, 49, 15, 120, 95, 10]"] ;
38 -> 39 ;
40 [label="X[19] <= 14.5\ngini = 0.795\nsamples = 424\nvalue = [0, 107, 116, 2, 14, 46, 15, 22, 94, 8]"] ;
39 -> 40 ;
41 [label="X[62] <= 2.5\ngini = 0.774\nsamples = 316\nvalue = [0, 21, 112, 2, 12, 43, 13, 22, 83, 8]"] ;
40 -> 41 ;
42 [label="X[21] <= 0.5\ngini = 0.795\nsamples = 202\nvalue = [0, 17, 21, 2, 12, 43, 6, 22, 71, 8]"] ;
41 -> 42 ;
43 [label="X[58] <= 6.0\ngini = 0.385\nsamples = 53\nvalue = [0, 0, 2, 0, 4, 41, 5, 0, 1, 0]"] ;
42 -> 43 ;
44 [label="gini = 0.645\nsamples = 11\nvalue = [0, 0, 0, 0, 4, 1, 5, 0, 1, 0]"] ;
43 -> 44 ;
45 [label="X[26] <= 11.5\ngini = 0.091\nsamples = 42\nvalue = [0, 0, 2, 0, 0, 40, 0, 0, 0, 0]"] ;
43 -> 45 ;
46 [label="gini = 0.32\nsamples = 10\nvalue = [0, 0, 2, 0, 0, 8, 0, 0, 0, 0]"] ;
45 -> 46 ;
47 [label="gini = 0.0\nsamples = 32\nvalue = [0, 0, 0, 0, 0, 32, 0, 0, 0, 0]"] ;
45 -> 47 ;
48 [label="X[50] <= 8.5\ngini = 0.722\nsamples = 149\nvalue = [0, 17, 19, 2, 8, 2, 1, 22, 70, 8]"] ;
42 -> 48 ;
49 [label="X[20] <= 15.5\ngini = 0.824\nsamples = 72\nvalue = [0, 17, 6, 2, 7, 2, 0, 18, 12, 8]"] ;
48 -> 49 ;
50 [label="X[61] <= 5.5\ngini = 0.794\nsamples = 52\nvalue = [0, 0, 5, 2, 7, 2, 0, 17, 11, 8]"] ;
49 -> 50 ;
51 [label="X[27] <= 10.5\ngini = 0.713\nsamples = 38\nvalue = [0, 0, 0, 2, 7, 2, 0, 17, 2, 8]"] ;
50 -> 51 ;
52 [label="X[25] <= 1.5\ngini = 0.459\nsamples = 22\nvalue = [0, 0, 0, 0, 6, 0, 0, 15, 1, 0]"] ;
51 -> 52 ;
53 [label="gini = 0.0\nsamples = 12\nvalue = [0, 0, 0, 0, 0, 0, 0, 12, 0, 0]"] ;
52 -> 53 ;
54 [label="gini = 0.54\nsamples = 10\nvalue = [0, 0, 0, 0, 6, 0, 0, 3, 1, 0]"] ;
52 -> 54 ;
55 [label="gini = 0.695\nsamples = 16\nvalue = [0, 0, 0, 2, 1, 2, 0, 2, 1, 8]"] ;
51 -> 55 ;
56 [label="gini = 0.459\nsamples = 14\nvalue = [0, 0, 5, 0, 0, 0, 0, 0, 9, 0]"] ;
50 -> 56 ;
57 [label="X[11] <= 13.5\ngini = 0.27\nsamples = 20\nvalue = [0, 17, 1, 0, 0, 0, 0, 1, 1, 0]"] ;
49 -> 57 ;
58 [label="gini = 0.0\nsamples = 10\nvalue = [0, 10, 0, 0, 0, 0, 0, 0, 0, 0]"] ;
57 -> 58 ;
59 [label="gini = 0.48\nsamples = 10\nvalue = [0, 7, 1, 0, 0, 0, 0, 1, 1, 0]"] ;
57 -> 59 ;
60 [label="X[26] <= 0.5\ngini = 0.401\nsamples = 77\nvalue = [0, 0, 13, 0, 1, 0, 1, 4, 58, 0]"] ;
48 -> 60 ;
61 [label="gini = 0.337\nsamples = 14\nvalue = [0, 0, 11, 0, 0, 0, 0, 0, 3, 0]"] ;
60 -> 61 ;
62 [label="X[43] <= 14.5\ngini = 0.232\nsamples = 63\nvalue = [0, 0, 2, 0, 1, 0, 1, 4, 55, 0]"] ;
60 -> 62 ;
63 [label="X[10] <= 11.5\ngini = 0.076\nsamples = 51\nvalue = [0, 0, 0, 0, 0, 0, 1, 1, 49, 0]"] ;
62 -> 63 ;
64 [label="gini = 0.34\nsamples = 10\nvalue = [0, 0, 0, 0, 0, 0, 1, 1, 8, 0]"] ;
63 -> 64 ;
65 [label="gini = 0.0\nsamples = 41\nvalue = [0, 0, 0, 0, 0, 0, 0, 0, 41, 0]"] ;
63 -> 65 ;
66 [label="gini = 0.653\nsamples = 12\nvalue = [0, 0, 2, 0, 1, 0, 0, 3, 6, 0]"] ;
62 -> 66 ;
67 [label="X[45] <= 7.5\ngini = 0.347\nsamples = 114\nvalue = [0, 4, 91, 0, 0, 0, 7, 0, 12, 0]"] ;
41 -> 67 ;
68 [label="X[51] <= 9.5\ngini = 0.022\nsamples = 91\nvalue = [0, 1, 90, 0, 0, 0, 0, 0, 0, 0]"] ;
67 -> 68 ;
69 [label="gini = 0.18\nsamples = 10\nvalue = [0, 1, 9, 0, 0, 0, 0, 0, 0, 0]"] ;
68 -> 69 ;
70 [label="gini = 0.0\nsamples = 81\nvalue = [0, 0, 81, 0, 0, 0, 0, 0, 0, 0]"] ;
68 -> 70 ;
71 [label="X[25] <= 1.5\ngini = 0.616\nsamples = 23\nvalue = [0, 3, 1, 0, 0, 0, 7, 0, 12, 0]"] ;
67 -> 71 ;
72 [label="gini = 0.272\nsamples = 13\nvalue = [0, 1, 1, 0, 0, 0, 0, 0, 11, 0]"] ;
71 -> 72 ;
73 [label="gini = 0.46\nsamples = 10\nvalue = [0, 2, 0, 0, 0, 0, 7, 0, 1, 0]"] ;
71 -> 73 ;
74 [label="X[26] <= 2.5\ngini = 0.353\nsamples = 108\nvalue = [0, 86, 4, 0, 2, 3, 2, 0, 11, 0]"] ;
40 -> 74 ;
75 [label="gini = 0.593\nsamples = 18\nvalue = [0, 7, 1, 0, 0, 1, 0, 0, 9, 0]"] ;
74 -> 75 ;
76 [label="X[36] <= 7.5\ngini = 0.226\nsamples = 90\nvalue = [0, 79, 3, 0, 2, 2, 2, 0, 2, 0]"] ;
74 -> 76 ;
77 [label="gini = 0.7\nsamples = 10\nvalue = [0, 4, 3, 0, 0, 0, 2, 0, 1, 0]"] ;
76 -> 77 ;
78 [label="X[27] <= 15.5\ngini = 0.12\nsamples = 80\nvalue = [0, 75, 0, 0, 2, 2, 0, 0, 1, 0]"] ;
76 -> 78 ;
79 [label="gini = 0.529\nsamples = 11\nvalue = [0, 7, 0, 0, 2, 2, 0, 0, 0, 0]"] ;
78 -> 79 ;
80 [label="X[53] <= 15.5\ngini = 0.029\nsamples = 69\nvalue = [0, 68, 0, 0, 0, 0, 0, 0, 1, 0]"] ;
78 -> 80 ;
81 [label="gini = 0.0\nsamples = 59\nvalue = [0, 59, 0, 0, 0, 0, 0, 0, 0, 0]"] ;
80 -> 81 ;
82 [label="gini = 0.18\nsamples = 10\nvalue = [0, 9, 0, 0, 0, 0, 0, 0, 1, 0]"] ;
80 -> 82 ;
83 [label="X[26] <= 10.5\ngini = 0.557\nsamples = 199\nvalue = [2, 3, 0, 1, 89, 3, 0, 98, 1, 2]"] ;
39 -> 83 ;
84 [label="X[60] <= 8.5\ngini = 0.097\nsamples = 100\nvalue = [0, 0, 0, 1, 2, 0, 0, 95, 1, 1]"] ;
83 -> 84 ;
85 [label="gini = 0.0\nsamples = 89\nvalue = [0, 0, 0, 0, 0, 0, 0, 89, 0, 0]"] ;
84 -> 85 ;
86 [label="gini = 0.645\nsamples = 11\nvalue = [0, 0, 0, 1, 2, 0, 0, 6, 1, 1]"] ;
84 -> 86 ;
87 [label="X[5] <= 9.5\ngini = 0.224\nsamples = 99\nvalue = [2, 3, 0, 0, 87, 3, 0, 3, 0, 1]"] ;
83 -> 87 ;
88 [label="X[13] <= 10.0\ngini = 0.066\nsamples = 88\nvalue = [2, 0, 0, 0, 85, 0, 0, 1, 0, 0]"] ;
87 -> 88 ;
89 [label="X[45] <= 3.5\ngini = 0.025\nsamples = 78\nvalue = [0, 0, 0, 0, 77, 0, 0, 1, 0, 0]"] ;
88 -> 89 ;
90 [label="gini = 0.18\nsamples = 10\nvalue = [0, 0, 0, 0, 9, 0, 0, 1, 0, 0]"] ;
89 -> 90 ;
91 [label="gini = 0.0\nsamples = 68\nvalue = [0, 0, 0, 0, 68, 0, 0, 0, 0, 0]"] ;
89 -> 91 ;
92 [label="gini = 0.32\nsamples = 10\nvalue = [2, 0, 0, 0, 8, 0, 0, 0, 0, 0]"] ;
88 -> 92 ;
93 [label="gini = 0.777\nsamples = 11\nvalue = [0, 3, 0, 0, 2, 3, 0, 2, 0, 1]"] ;
87 -> 93 ;
94 [label="X[21] <= 1.0\ngini = 0.46\nsamples = 145\nvalue = [0, 1, 6, 7, 8, 1, 105, 0, 12, 5]"] ;
38 -> 94 ;
95 [label="X[61] <= 8.5\ngini = 0.136\nsamples = 112\nvalue = [0, 0, 1, 1, 4, 1, 104, 0, 1, 0]"] ;
94 -> 95 ;
96 [label="gini = 0.711\nsamples = 11\nvalue = [0, 0, 0, 1, 4, 1, 4, 0, 1, 0]"] ;
95 -> 96 ;
97 [label="X[10] <= 12.5\ngini = 0.02\nsamples = 101\nvalue = [0, 0, 1, 0, 0, 0, 100, 0, 0, 0]"] ;
95 -> 97 ;
98 [label="gini = 0.0\nsamples = 91\nvalue = [0, 0, 0, 0, 0, 0, 91, 0, 0, 0]"] ;
97 -> 98 ;
99 [label="gini = 0.18\nsamples = 10\nvalue = [0, 0, 1, 0, 0, 0, 9, 0, 0, 0]"] ;
97 -> 99 ;
100 [label="X[26] <= 3.5\ngini = 0.793\nsamples = 33\nvalue = [0, 1, 5, 6, 4, 0, 1, 0, 11, 5]"] ;
94 -> 100 ;
101 [label="gini = 0.5\nsamples = 10\nvalue = [0, 0, 5, 5, 0, 0, 0, 0, 0, 0]"] ;
100 -> 101 ;
102 [label="X[27] <= 10.0\ngini = 0.688\nsamples = 23\nvalue = [0, 1, 0, 1, 4, 0, 1, 0, 11, 5]"] ;
100 -> 102 ;
103 [label="gini = 0.694\nsamples = 11\nvalue = [0, 0, 0, 1, 3, 0, 1, 0, 1, 5]"] ;
102 -> 103 ;
104 [label="gini = 0.292\nsamples = 12\nvalue = [0, 1, 0, 0, 1, 0, 0, 0, 10, 0]"] ;
102 -> 104 ;
}
